{
  "g5_simple_mean_norm": 1.346973,
  "g5_complex_mean_norm": 4.6615167,
  "node_weights": [
    {
      "node_id": "surface_0",
      "tier": "Surface",
      "weights": [
        0.027094016,
        0.00250121,
        0.012350401,
        0.00852595,
        0.049732007,
        0.0027989731,
        0.0027096441,
        0.029263264,
        0.028382324,
        0.0,
        0.0016257865,
        0.012912253,
        0.0168276,
        0.01841254,
        0.028999608,
        0.009218249,
        0.0,
        0.026922652,
        0.025296476,
        0.030333664,
        0.018677745,
        0.0028763916,
        0.013200542,
        0.0,
        0.01568124,
        0.0,
        0.45522028,
        0.03251573,
        0.0,
        0.0,
        0.0,
        0.0,
        0.0,
        0.0,
        0.050941315,
        0.03251573,
        0.0,
        0.0,
        0.0,
        0.0,
        0.0,
        0.013006292,
        0.0,
        0.0,
        0.0,
        0.0,
        0.0,
        0.0,
        0.0,
        0.48773602,
        0.07587004,
        0.03793502,
        0.048773594,
        0.03251573,
        0.0,
        0.0018064295,
        0.052025165,
        0.0,
        0.008128933,
        0.0,
        0.0,
        0.35767305,
        0.15643679,
        0.15603614,
        0.15312962,
        0.14710736,
        0.08079305,
        0.016990859,
        0.0,
        0.0,
        0.0,
        0.0,
        0.0,
        0.0,
        0.0,
        0.0,
        0.0,
        0.0,
        0.0,
        0.0,
        0.0,
        0.0,
        0.0,
        0.0,
        0.0,
        0.0,
        0.0,
        0.0,
        0.0,
        0.0,
        0.0,
        0.0,
        0.0,
        0.0,
        0.0,
        0.0,
        0.0,
        0.0,
        0.0,
        0.0,
        0.0,
        0.32515728,
        0.016022148,
        0.13226676,
        0.107301906,
        0.0,
        0.016626589,
        0.082894176,
        0.12612168,
        0.05290678,
        0.0,
        0.0,
        0.0,
        0.31136787,
        0.0,
        0.0,
        0.0054192883,
        0.010838577,
        0.008128933,
        0.15174007,
        0.0,
        0.060967002,
        0.11001155,
        0.033807278,
        0.0035767304,
        0.006503146,
        0.0,
        0.0
      ],
      "base_confidence": 0.8
    },
    {
      "node_id": "surface_1",
      "tier": "Surface",
      "weights": [
        0.027094016,
        0.00250121,
        0.012350401,
        0.00852595,
        0.049732007,
        0.0027989731,
        0.0027096441,
        0.029263264,
        0.028382324,
        0.0,
        0.0016257865,
        0.012912253,
        0.0168276,
        0.01841254,
        0.028999608,
        0.009218249,
        0.0,
        0.026922652,
        0.025296476,
        0.030333664,
        0.018677745,
        0.0028763916,
        0.013200542,
        0.0,
        0.01568124,
        0.0,
        0.45522028,
        0.03251573,
        0.0,
        0.0,
        0.0,
        0.0,
        0.0,
        0.0,
        0.050941315,
        0.03251573,
        0.0,
        0.0,
        0.0,
        0.0,
        0.0,
        0.013006292,
        0.0,
        0.0,
        0.0,
        0.0,
        0.0,
        0.0,
        0.0,
        0.48773602,
        0.07587004,
        0.03793502,
        0.048773594,
        0.03251573,
        0.0,
        0.0018064295,
        0.052025165,
        0.0,
        0.008128933,
        0.0,
        0.0,
        0.35767305,
        0.15643679,
        0.15603614,
        0.15312962,
        0.14710736,
        0.08079305,
        0.016990859,
        0.0,
        0.0,
        0.0,
        0.0,
        0.0,
        0.0,
        0.0,
        0.0,
        0.0,
        0.0,
        0.0,
        0.0,
        0.0,
        0.0,
        0.0,
        0.0,
        0.0,
        0.0,
        0.0,
        0.0,
        0.0,
        0.0,
        0.0,
        0.0,
        0.0,
        0.0,
        0.0,
        0.0,
        0.0,
        0.0,
        0.0,
        0.0,
        0.0,
        0.32515728,
        0.016022148,
        0.13226676,
        0.107301906,
        0.0,
        0.016626589,
        0.082894176,
        0.12612168,
        0.05290678,
        0.0,
        0.0,
        0.0,
        0.31136787,
        0.0,
        0.0,
        0.0054192883,
        0.010838577,
        0.008128933,
        0.15174007,
        0.0,
        0.060967002,
        0.11001155,
        0.033807278,
        0.0035767304,
        0.006503146,
        0.0,
        0.0
      ],
      "base_confidence": 0.8
    },
    {
      "node_id": "surface_2",
      "tier": "Surface",
      "weights": [
        0.027094016,
        0.00250121,
        0.012350401,
        0.00852595,
        0.049732007,
        0.0027989731,
        0.0027096441,
        0.029263264,
        0.028382324,
        0.0,
        0.0016257865,
        0.012912253,
        0.0168276,
        0.01841254,
        0.028999608,
        0.009218249,
        0.0,
        0.026922652,
        0.025296476,
        0.030333664,
        0.018677745,
        0.0028763916,
        0.013200542,
        0.0,
        0.01568124,
        0.0,
        0.45522028,
        0.03251573,
        0.0,
        0.0,
        0.0,
        0.0,
        0.0,
        0.0,
        0.050941315,
        0.03251573,
        0.0,
        0.0,
        0.0,
        0.0,
        0.0,
        0.013006292,
        0.0,
        0.0,
        0.0,
        0.0,
        0.0,
        0.0,
        0.0,
        0.48773602,
        0.07587004,
        0.03793502,
        0.048773594,
        0.03251573,
        0.0,
        0.0018064295,
        0.052025165,
        0.0,
        0.008128933,
        0.0,
        0.0,
        0.35767305,
        0.15643679,
        0.15603614,
        0.15312962,
        0.14710736,
        0.08079305,
        0.016990859,
        0.0,
        0.0,
        0.0,
        0.0,
        0.0,
        0.0,
        0.0,
        0.0,
        0.0,
        0.0,
        0.0,
        0.0,
        0.0,
        0.0,
        0.0,
        0.0,
        0.0,
        0.0,
        0.0,
        0.0,
        0.0,
        0.0,
        0.0,
        0.0,
        0.0,
        0.0,
        0.0,
        0.0,
        0.0,
        0.0,
        0.0,
        0.0,
        0.0,
        0.32515728,
        0.016022148,
        0.13226676,
        0.107301906,
        0.0,
        0.016626589,
        0.082894176,
        0.12612168,
        0.05290678,
        0.0,
        0.0,
        0.0,
        0.31136787,
        0.0,
        0.0,
        0.0054192883,
        0.010838577,
        0.008128933,
        0.15174007,
        0.0,
        0.060967002,
        0.11001155,
        0.033807278,
        0.0035767304,
        0.006503146,
        0.0,
        0.0
      ],
      "base_confidence": 0.8
    },
    {
      "node_id": "surface_3",
      "tier": "Surface",
      "weights": [
        0.027094016,
        0.00250121,
        0.012350401,
        0.00852595,
        0.049732007,
        0.0027989731,
        0.0027096441,
        0.029263264,
        0.028382324,
        0.0,
        0.0016257865,
        0.012912253,
        0.0168276,
        0.01841254,
        0.028999608,
        0.009218249,
        0.0,
        0.026922652,
        0.025296476,
        0.030333664,
        0.018677745,
        0.0028763916,
        0.013200542,
        0.0,
        0.01568124,
        0.0,
        0.45522028,
        0.03251573,
        0.0,
        0.0,
        0.0,
        0.0,
        0.0,
        0.0,
        0.050941315,
        0.03251573,
        0.0,
        0.0,
        0.0,
        0.0,
        0.0,
        0.013006292,
        0.0,
        0.0,
        0.0,
        0.0,
        0.0,
        0.0,
        0.0,
        0.48773602,
        0.07587004,
        0.03793502,
        0.048773594,
        0.03251573,
        0.0,
        0.0018064295,
        0.052025165,
        0.0,
        0.008128933,
        0.0,
        0.0,
        0.35767305,
        0.15643679,
        0.15603614,
        0.15312962,
        0.14710736,
        0.08079305,
        0.016990859,
        0.0,
        0.0,
        0.0,
        0.0,
        0.0,
        0.0,
        0.0,
        0.0,
        0.0,
        0.0,
        0.0,
        0.0,
        0.0,
        0.0,
        0.0,
        0.0,
        0.0,
        0.0,
        0.0,
        0.0,
        0.0,
        0.0,
        0.0,
        0.0,
        0.0,
        0.0,
        0.0,
        0.0,
        0.0,
        0.0,
        0.0,
        0.0,
        0.0,
        0.32515728,
        0.016022148,
        0.13226676,
        0.107301906,
        0.0,
        0.016626589,
        0.082894176,
        0.12612168,
        0.05290678,
        0.0,
        0.0,
        0.0,
        0.31136787,
        0.0,
        0.0,
        0.0054192883,
        0.010838577,
        0.008128933,
        0.15174007,
        0.0,
        0.060967002,
        0.11001155,
        0.033807278,
        0.0035767304,
        0.006503146,
        0.0,
        0.0
      ],
      "base_confidence": 0.8
    },
    {
      "node_id": "surface_4",
      "tier": "Surface",
      "weights": [
        0.027094016,
        0.00250121,
        0.012350401,
        0.00852595,
        0.049732007,
        0.0027989731,
        0.0027096441,
        0.029263264,
        0.028382324,
        0.0,
        0.0016257865,
        0.012912253,
        0.0168276,
        0.01841254,
        0.028999608,
        0.009218249,
        0.0,
        0.026922652,
        0.025296476,
        0.030333664,
        0.018677745,
        0.0028763916,
        0.013200542,
        0.0,
        0.01568124,
        0.0,
        0.45522028,
        0.03251573,
        0.0,
        0.0,
        0.0,
        0.0,
        0.0,
        0.0,
        0.050941315,
        0.03251573,
        0.0,
        0.0,
        0.0,
        0.0,
        0.0,
        0.013006292,
        0.0,
        0.0,
        0.0,
        0.0,
        0.0,
        0.0,
        0.0,
        0.48773602,
        0.07587004,
        0.03793502,
        0.048773594,
        0.03251573,
        0.0,
        0.0018064295,
        0.052025165,
        0.0,
        0.008128933,
        0.0,
        0.0,
        0.35767305,
        0.15643679,
        0.15603614,
        0.15312962,
        0.14710736,
        0.08079305,
        0.016990859,
        0.0,
        0.0,
        0.0,
        0.0,
        0.0,
        0.0,
        0.0,
        0.0,
        0.0,
        0.0,
        0.0,
        0.0,
        0.0,
        0.0,
        0.0,
        0.0,
        0.0,
        0.0,
        0.0,
        0.0,
        0.0,
        0.0,
        0.0,
        0.0,
        0.0,
        0.0,
        0.0,
        0.0,
        0.0,
        0.0,
        0.0,
        0.0,
        0.0,
        0.32515728,
        0.016022148,
        0.13226676,
        0.107301906,
        0.0,
        0.016626589,
        0.082894176,
        0.12612168,
        0.05290678,
        0.0,
        0.0,
        0.0,
        0.31136787,
        0.0,
        0.0,
        0.0054192883,
        0.010838577,
        0.008128933,
        0.15174007,
        0.0,
        0.060967002,
        0.11001155,
        0.033807278,
        0.0035767304,
        0.006503146,
        0.0,
        0.0
      ],
      "base_confidence": 0.8
    },
    {
      "node_id": "reasoning_standalone_0",
      "tier": "Reasoning",
      "weights": [
        -0.16509081,
        0.04132645,
        0.014284358,
        -0.11319998,
        -0.063756175,
        0.015597924,
        0.039675564,
        0.025074763,
        0.048383746,
        -0.05222733,
        -0.12841569,
        0.10196854,
        -0.057913635,
        -0.04953429,
        0.08610887,
        -0.06778587,
        -0.08045745,
        -0.07875868,
        -0.035010047,
        -0.01955959,
        -0.14302447,
        0.010881073,
        0.10455621,
        0.0043217083,
        0.01676727,
        0.026925525,
        -0.063166566,
        -0.10245114,
        -0.0701958,
        -0.12082421,
        -0.00802812,
        0.05834785,
        0.032038618,
        0.15723675,
        -0.019847827,
        -0.07988281,
        0.11736279,
        -0.029254498,
        -0.1259236,
        0.054443564,
        -0.03173191,
        0.15418462,
        -0.038181175,
        0.08844857,
        -0.08150258,
        0.10132102,
        -0.09105651,
        0.047171436,
        -0.056816664,
        0.11705944,
        -0.15664421,
        0.04049389,
        0.124192916,
        0.041875865,
        0.1639992,
        0.13196926,
        0.00042966157,
        -0.08752729,
        -0.064736836,
        0.038873173,
        -0.083210126,
        -0.116441704,
        0.0012027257,
        0.058828544,
        -0.14398198,
        0.06401418,
        -0.08826884,
        0.016549489,
        0.06741587,
        0.009671006,
        0.01596571,
        -0.018681196,
        -0.019248521,
        -0.1601545,
        -0.15465313,
        -0.09894449,
        0.006443959,
        -0.04621089,
        0.095144436,
        -0.13120772,
        -0.08303457,
        -0.11636975,
        0.054221474,
        0.16237004,
        0.025645357,
        -0.03766665,
        0.015211874,
        0.11078668,
        -0.044111002,
        0.074820645,
        0.14522612,
        0.11671454,
        0.14471276,
        0.022994373,
        0.16410685,
        -0.052038025,
        -0.07754635,
        0.014436605,
        -0.029128809,
        0.16132993,
        -0.025507722,
        -0.1487985,
        0.035892524,
        -0.051071227,
        0.075232595,
        -0.10222773,
        -0.03654854,
        -0.12798946,
        0.02843922,
        0.100269616,
        0.060906675,
        -0.13887282,
        -0.12608063,
        0.14275612,
        -0.028580287,
        0.16009188,
        -0.010634823,
        -0.14702402,
        -0.004035812,
        -0.03985123,
        0.13115364,
        0.09359982,
        -0.017277062,
        -0.07196081,
        -0.06661843,
        0.10337368,
        0.05054093,
        -0.03779103
      ],
      "base_confidence": 0.6
    },
    {
      "node_id": "reasoning_standalone_1",
      "tier": "Reasoning",
      "weights": [
        -0.028236372,
        -0.0854733,
        0.05926288,
        -0.12733974,
        0.01298422,
        -0.044548254,
        -0.035771687,
        0.08750442,
        -0.09488356,
        0.09391416,
        -0.13348742,
        -0.14844523,
        0.05198215,
        0.033827737,
        -0.0036117656,
        0.162115,
        0.1075275,
        0.0787847,
        0.11245296,
        0.009117723,
        0.01155276,
        0.14481947,
        0.018378219,
        0.106876895,
        -0.043325722,
        -0.06930618,
        0.15058425,
        -0.03170621,
        0.029096832,
        0.097233884,
        -0.08945416,
        -0.0030310426,
        0.13047315,
        -0.062226884,
        -0.020994876,
        0.00627215,
        -0.109218456,
        0.023471123,
        -0.03712402,
        0.013045268,
        -0.07089211,
        0.053129658,
        -0.13676941,
        -0.10957309,
        0.023987124,
        0.09133543,
        -0.12832874,
        -0.14835124,
        -0.0038906166,
        -0.15631339,
        0.13574198,
        0.11891091,
        0.097393535,
        0.05473354,
        0.120612346,
        -0.021622417,
        -0.11948277,
        0.07678944,
        0.09912699,
        -0.07840945,
        -0.09456639,
        -0.03149119,
        -0.1287162,
        -0.15005639,
        -0.023668978,
        -0.052405853,
        -0.10920918,
        0.0025439847,
        -0.068055816,
        -0.019431617,
        -0.07575988,
        -0.0761642,
        -0.06415145,
        0.042919002,
        -0.030572416,
        0.09319605,
        -0.047347806,
        -0.10259622,
        -0.08039865,
        -0.09800687,
        -0.05021051,
        -0.09400063,
        0.0901042,
        0.12197089,
        -0.07917757,
        -0.015409864,
        0.13679856,
        -0.02305242,
        -0.09471968,
        -0.16417255,
        -0.089021154,
        0.05084645,
        0.07734649,
        -0.09260927,
        -0.01622725,
        0.119372696,
        -0.14117803,
        -0.14331156,
        0.032147005,
        -0.0680602,
        -0.038712427,
        0.034528196,
        -0.039528042,
        -0.09192687,
        -0.060367636,
        0.0041374816,
        0.078288734,
        -0.07833863,
        0.14541835,
        0.08917045,
        0.07835643,
        -0.08198007,
        0.1321787,
        0.10038885,
        -0.15077579,
        -0.093074806,
        -0.044566847,
        -0.115891516,
        0.15070339,
        -0.049042482,
        -0.027983485,
        0.100494206,
        -0.020425333,
        -0.045697264,
        -0.09105527,
        -0.11216656,
        -0.06862532,
        0.05656741
      ],
      "base_confidence": 0.6
    },
    {
      "node_id": "reasoning_standalone_2",
      "tier": "Reasoning",
      "weights": [
        0.09750694,
        0.05941192,
        -0.12029521,
        -0.060007907,
        0.0044148588,
        -0.14388013,
        0.018478697,
        0.06969386,
        -0.01347033,
        -0.011604074,
        0.052475076,
        0.17265163,
        0.12054455,
        0.043767516,
        0.12316549,
        0.12779579,
        0.03717783,
        0.016827874,
        -0.09471225,
        0.014155538,
        -0.108702,
        0.050975647,
        -0.11291294,
        0.13933828,
        -0.049819596,
        0.018653823,
        -0.044722848,
        -0.031500313,
        0.14601493,
        -0.032169603,
        -0.10313103,
        0.1123387,
        -0.013535041,
        -0.14988753,
        0.018243136,
        -0.12098524,
        0.09329398,
        -0.071458995,
        -0.14154828,
        -0.017794373,
        0.037463967,
        0.06190722,
        0.010485092,
        -0.095958985,
        -0.14881946,
        0.07726936,
        0.10498388,
        0.040646553,
        -0.046086602,
        0.012237885,
        0.100451834,
        -0.06924968,
        0.04663155,
        -0.06886575,
        0.009798902,
        0.029911224,
        -0.13430922,
        -0.09236378,
        -0.08480156,
        -0.044663165,
        0.1173552,
        -0.09570458,
        -0.14584018,
        0.09904187,
        -0.030311955,
        0.050939538,
        -0.027948143,
        0.11493716,
        0.04510902,
        0.12918945,
        0.06521929,
        0.022888463,
        -0.14632045,
        0.035387754,
        -0.011912757,
        -0.1573334,
        -0.10068593,
        0.0069295797,
        0.030400123,
        0.059743088,
        -0.006361053,
        0.10021296,
        -0.035697106,
        -0.15936741,
        0.07622028,
        0.05671657,
        0.11568547,
        0.019754615,
        -0.09352651,
        0.10065296,
        -0.14306724,
        -0.13645366,
        -0.0761656,
        0.056355514,
        0.06401447,
        -0.15874162,
        -0.047292255,
        -0.077635966,
        -0.15181792,
        -0.12555623,
        0.050356444,
        0.06679256,
        -0.07568157,
        -0.0741816,
        0.09783265,
        -0.021372417,
        -0.040415827,
        0.10241409,
        -0.03783543,
        0.04590953,
        -0.13644429,
        -0.13399115,
        0.081964694,
        -0.0145213455,
        -0.07430771,
        0.1578583,
        -0.13438587,
        0.07196686,
        0.058212884,
        0.08621528,
        -0.10702077,
        0.04833739,
        0.010909003,
        -0.029998653,
        -0.13281104,
        -0.021813123,
        -0.11792771,
        0.08042851
      ],
      "base_confidence": 0.6
    },
    {
      "node_id": "reasoning_standalone_3",
      "tier": "Reasoning",
      "weights": [
        -0.07106807,
        0.0951764,
        0.060749516,
        0.0600505,
        -0.10032272,
        -0.08161432,
        -0.05266418,
        0.00083293143,
        -0.0404792,
        0.10057297,
        0.015820758,
        -0.13419043,
        -0.014962623,
        -0.11516896,
        0.09496326,
        -0.10823648,
        0.069995835,
        -0.09205423,
        -0.005737596,
        0.0026591606,
        -0.0024636826,
        0.14794883,
        0.0037380497,
        -0.0391069,
        0.002883687,
        -0.08774768,
        -0.13239215,
        0.04588173,
        0.048985507,
        -0.14678152,
        -0.082802944,
        -0.11060136,
        0.1388417,
        0.100538395,
        0.11073204,
        -0.052150834,
        -0.14649443,
        -0.116592556,
        0.038984172,
        0.08698501,
        0.104197465,
        0.110347934,
        0.096553616,
        0.0011619212,
        0.068704695,
        -0.03137264,
        0.02313299,
        0.08178683,
        -0.018999768,
        -0.02841155,
        -0.054327063,
        -0.07825471,
        0.11429505,
        -0.101080686,
        0.06379645,
        -0.024078976,
        -0.032170158,
        0.122185186,
        -0.12518589,
        0.14062312,
        0.08812211,
        0.12525924,
        0.0055798288,
        -0.098915346,
        -0.09258019,
        0.053692546,
        -0.13354415,
        -0.08470489,
        0.025530426,
        0.015784822,
        -0.11541903,
        0.14414799,
        -0.096688285,
        0.12907676,
        0.11173812,
        0.048975404,
        -0.07518545,
        -0.073763065,
        0.10140921,
        0.13549979,
        -0.112607084,
        -0.1188153,
        -0.13702774,
        -0.06897718,
        -0.09170465,
        -0.07516548,
        -0.042039137,
        -0.0095718615,
        0.0645347,
        -0.13812089,
        -0.0763703,
        -0.03317372,
        0.149985,
        0.1004339,
        -0.022949483,
        -0.05234341,
        0.06902137,
        -0.025791084,
        0.14855325,
        0.03415414,
        0.045112632,
        0.14358155,
        0.09252604,
        -0.02535103,
        0.102261014,
        0.07811855,
        0.02147149,
        0.09436859,
        0.04107951,
        -0.07491642,
        -0.13039893,
        0.054680694,
        0.08263096,
        0.11144115,
        -0.03213931,
        0.06089175,
        -0.11290099,
        -0.042842485,
        0.031676486,
        0.09059291,
        -0.032143626,
        0.10766974,
        0.1322685,
        0.026347924,
        -0.061592847,
        0.09514388,
        0.15880018,
        -0.12736173
      ],
      "base_confidence": 0.6
    },
    {
      "node_id": "reasoning_standalone_4",
      "tier": "Reasoning",
      "weights": [
        0.10714532,
        0.029478785,
        0.115234315,
        -0.06272779,
        0.07527846,
        -0.016458638,
        -0.14787175,
        -0.12971243,
        0.06839629,
        0.09699406,
        -0.12328548,
        -0.022788238,
        0.0587185,
        0.036190316,
        0.11182715,
        -0.016033163,
        -0.12364992,
        -0.025312174,
        -0.1440877,
        -0.14227892,
        -0.09538412,
        -0.077357836,
        -0.15873057,
        -0.12285561,
        0.0899355,
        -0.0037726613,
        -0.050323654,
        0.09885211,
        -0.060199182,
        -0.116439,
        0.106359415,
        -0.11657997,
        0.020522775,
        -0.1444906,
        -0.037463706,
        -0.16256362,
        -0.024094334,
        0.06816243,
        -0.15429154,
        0.020321425,
        0.099890366,
        -0.14576685,
        0.11559495,
        0.028643223,
        -0.0139320735,
        0.04510733,
        0.015284009,
        -0.09308433,
        -0.0143183535,
        0.111459754,
        -0.059073437,
        -0.05018639,
        -0.10909764,
        -0.06560427,
        0.042402074,
        -0.07472622,
        0.05183613,
        -0.028568417,
        -0.05465332,
        -0.0005389142,
        0.032113552,
        0.067707546,
        -0.15239224,
        -0.13222358,
        0.13478075,
        -0.098933995,
        0.11563305,
        0.03638918,
        0.11921972,
        -0.14472857,
        0.071285404,
        0.1391265,
        0.110568225,
        0.033891443,
        -0.110775426,
        -0.091802284,
        0.100863844,
        -0.087314,
        0.13587502,
        0.00508961,
        0.0006585349,
        0.015399777,
        -0.10168603,
        -0.050476644,
        -0.060471952,
        0.036179196,
        0.11799978,
        -0.07986028,
        0.028634744,
        -0.1358019,
        -0.05005101,
        0.12764047,
        -0.13068232,
        -0.08893253,
        0.009578368,
        -0.064911425,
        -0.059928097,
        -0.040118,
        0.035797343,
        0.09732739,
        0.11276282,
        -0.103961155,
        0.033063903,
        0.091468476,
        -0.010839962,
        -0.12807901,
        0.123109415,
        -0.13003065,
        0.09533515,
        -0.05282372,
        -0.02171957,
        -0.03614287,
        0.0103864055,
        0.03062041,
        -0.07331315,
        -0.15402031,
        -0.028049862,
        -0.093089476,
        0.090788506,
        -0.002486738,
        0.014800548,
        0.06066103,
        -0.06880238,
        0.019146094,
        -0.14321274,
        -0.07537191,
        -0.02522246,
        0.018398395
      ],
      "base_confidence": 0.6
    },
    {
      "node_id": "reasoning_standalone_5",
      "tier": "Reasoning",
      "weights": [
        0.13625689,
        -0.104513556,
        0.04853914,
        -0.045640346,
        -0.058056384,
        0.0842808,
        -0.014211182,
        0.055210777,
        0.073119424,
        0.09226071,
        0.1223974,
        -0.013874857,
        0.123692214,
        -0.114986256,
        -0.036482807,
        0.048864618,
        0.001191828,
        -0.011666698,
        0.04310329,
        0.042323206,
        -0.07906058,
        0.018832162,
        -0.12241338,
        0.053615976,
        -0.0010927304,
        0.02839122,
        0.06028622,
        -0.06790145,
        -0.0010715803,
        -0.13207768,
        0.15666857,
        0.0239889,
        -0.06470188,
        0.09676499,
        -0.1420645,
        0.1229985,
        0.0757842,
        -0.11653077,
        0.037559427,
        0.15884088,
        -0.058797494,
        -0.035887737,
        -0.10479682,
        0.15053755,
        -0.14051935,
        0.17111327,
        0.09619636,
        0.012224223,
        -0.0668551,
        0.091864064,
        -0.005722025,
        -0.075174704,
        -0.083340004,
        -0.05024299,
        -0.005401137,
        0.06681083,
        0.14188926,
        0.034019887,
        -0.001676324,
        -0.116296925,
        -0.12560359,
        0.11702783,
        -0.16992907,
        -0.19703302,
        -0.00455127,
        0.03468965,
        -0.11144745,
        -0.1502166,
        -0.00939511,
        -0.16205344,
        0.06894581,
        -0.027913472,
        -0.14279412,
        -0.13192719,
        0.1228702,
        -0.032010406,
        0.025286391,
        -0.17304003,
        0.011312135,
        -0.03034741,
        -0.15011753,
        0.018745841,
        0.035924375,
        -0.06749086,
        -0.02039006,
        -0.010228564,
        -0.047564887,
        -0.049158245,
        0.025215197,
        0.006680057,
        -0.07072306,
        -0.0013382203,
        0.013766769,
        0.14226936,
        -0.09061238,
        0.11394583,
        0.06251485,
        0.008627936,
        -0.025532078,
        -0.019743832,
        -0.007978746,
        -0.08457932,
        -0.050958723,
        -0.10239499,
        0.060536027,
        0.057149537,
        -0.031228382,
        0.05962095,
        0.0028855917,
        -0.043559555,
        0.056410626,
        0.13556603,
        -0.114699915,
        -0.1243491,
        -0.0569949,
        0.12378573,
        -0.13468292,
        -0.055158313,
        0.09832118,
        0.06931371,
        -0.044326622,
        -0.11628212,
        -0.10176011,
        -0.13762604,
        0.108760856,
        -0.13217038,
        0.05339893,
        0.010758681
      ],
      "base_confidence": 0.6
    },
    {
      "node_id": "reasoning_standalone_6",
      "tier": "Reasoning",
      "weights": [
        -0.052108712,
        0.1035269,
        0.121788196,
        0.1476076,
        -0.011852452,
        -0.12085211,
        0.09034494,
        0.15804955,
        0.10919753,
        0.0040397192,
        -0.032637563,
        -0.057603613,
        0.055830024,
        0.11821618,
        0.004469322,
        0.08055679,
        -0.098580755,
        0.10520917,
        -0.10422063,
        -0.039794788,
        0.0011394081,
        0.06479611,
        0.0011959707,
        -0.11727792,
        0.16858372,
        0.02317873,
        -0.07396251,
        -0.15513997,
        0.008403072,
        -0.15312313,
        -0.12167589,
        -0.100278705,
        -0.038489647,
        0.08038903,
        -0.032682028,
        0.13044366,
        -0.04911534,
        0.06267347,
        0.033825193,
        -0.1133145,
        0.00038325367,
        0.030860735,
        0.008688965,
        0.098154664,
        -0.019111471,
        0.16820568,
        0.09516665,
        -0.11767825,
        -0.13791408,
        0.028789122,
        0.043635927,
        0.121829465,
        0.010618498,
        0.10489613,
        -0.062186424,
        -0.08615517,
        -0.06909135,
        0.11097898,
        0.06250429,
        0.060821652,
        -0.05555528,
        -0.15064847,
        0.14771876,
        -0.053608447,
        0.038514018,
        0.001539437,
        -0.09671537,
        -0.08033291,
        0.1860977,
        -0.05705881,
        -0.08906511,
        0.12026966,
        0.036819197,
        -0.115844674,
        0.1507549,
        -0.23044008,
        0.003207878,
        0.04284863,
        -0.064029455,
        0.03518787,
        0.029506056,
        0.085203074,
        -0.07776497,
        -0.044436015,
        0.013605996,
        0.096075766,
        -0.06391528,
        -0.13144822,
        0.05976714,
        0.05583448,
        0.018559948,
        -0.07552153,
        0.07013829,
        -0.12417947,
        0.1438651,
        -0.043847226,
        -0.0579739,
        -0.011095515,
        0.022054896,
        0.110745825,
        -0.07366734,
        0.09143848,
        -0.040088072,
        -0.04572473,
        -0.06574324,
        0.04376395,
        -0.12181477,
        -0.10136866,
        0.029580032,
        0.07202733,
        -0.018083109,
        -0.022483937,
        0.11980728,
        0.024137266,
        -0.095260106,
        0.0126833385,
        0.057117615,
        0.06383462,
        0.06383576,
        -0.048431974,
        -0.15770938,
        -0.046292935,
        -0.07675532,
        0.099245235,
        0.1421649,
        -0.10164123,
        -0.0065408773,
        0.009161696
      ],
      "base_confidence": 0.6
    },
    {
      "node_id": "reasoning_standalone_7",
      "tier": "Reasoning",
      "weights": [
        -0.12003301,
        0.12903166,
        -0.080509216,
        -0.06712833,
        -0.00832339,
        0.034018595,
        -0.07676723,
        -0.07064326,
        0.16290249,
        -0.029862786,
        0.083331846,
        0.16022858,
        -0.092620976,
        0.05693852,
        -0.124075554,
        -0.03028944,
        -0.15153511,
        0.008319611,
        -0.06680186,
        0.08922822,
        0.12601998,
        0.09312166,
        -0.13547423,
        -0.0043488713,
        -0.10769923,
        0.044047713,
        0.078039154,
        0.103890516,
        -0.0019461811,
        -0.035486452,
        -0.08938291,
        -0.08777271,
        -0.080426246,
        -0.0012524123,
        -0.07862149,
        0.12640548,
        -0.0840151,
        -0.12910493,
        0.078319006,
        0.12446656,
        -0.14805509,
        -0.10085493,
        -0.097008705,
        0.010736906,
        -0.086038105,
        -0.078685656,
        0.15361154,
        0.04157384,
        0.043184634,
        0.06497084,
        0.13514829,
        0.18152972,
        0.027349463,
        0.040199127,
        -0.018933306,
        -0.03232906,
        -0.1082231,
        -0.00051275326,
        -0.15916292,
        -0.056548424,
        -0.13236631,
        -0.0045301644,
        -0.027738415,
        0.12500279,
        0.006836466,
        -0.053925607,
        -0.02648682,
        0.15857351,
        -0.09923088,
        -0.1321403,
        0.06831677,
        0.14302696,
        -0.0720954,
        -0.03204948,
        -0.02445545,
        -0.021227397,
        -0.0997433,
        -0.14144441,
        -0.025074044,
        0.10495339,
        0.08261774,
        0.10742011,
        -0.04473203,
        0.04070724,
        -0.021921674,
        -0.12585217,
        0.012284907,
        0.08889163,
        0.087144375,
        -0.06025654,
        0.09371573,
        -0.024754079,
        0.028471705,
        -0.10211957,
        -0.07380401,
        0.034632497,
        0.09835035,
        0.12349821,
        0.016377775,
        -0.01894636,
        -0.0073096473,
        0.1134766,
        -0.066131055,
        -0.113579266,
        0.06152998,
        -0.17647482,
        0.066737674,
        -0.0937929,
        0.07586434,
        0.0070203147,
        -0.047803704,
        -0.05062552,
        0.019543638,
        0.12234001,
        0.06763284,
        -0.13023442,
        -0.1279359,
        -0.12453399,
        0.0051435907,
        -0.025147106,
        -0.034946144,
        0.11460219,
        0.01154263,
        0.046724018,
        0.07979792,
        0.10429159,
        -0.07618449,
        -0.05831117
      ],
      "base_confidence": 0.6
    },
    {
      "node_id": "reasoning_standalone_8",
      "tier": "Reasoning",
      "weights": [
        0.011239689,
        -0.12873133,
        -0.07574206,
        0.05510279,
        0.031592928,
        0.05646209,
        0.096429236,
        0.12864518,
        0.12803714,
        -0.14553379,
        -0.0056259604,
        0.13940828,
        0.15539783,
        -0.0007602334,
        0.009929653,
        -0.042822577,
        -0.001590423,
        -0.07529188,
        0.11451148,
        -0.087827034,
        0.083552174,
        0.12127035,
        0.029256841,
        -0.109850705,
        -0.08645519,
        -0.12828067,
        -0.12054233,
        0.000045862005,
        -0.12996045,
        -0.11078582,
        0.13373508,
        -0.033593003,
        -0.05397552,
        -0.046040047,
        0.047315177,
        0.083660685,
        -0.09728878,
        0.019202795,
        -0.09487426,
        0.08042004,
        0.07666806,
        -0.15385222,
        0.11103986,
        0.09304033,
        -0.056574136,
        0.17976266,
        -0.004537273,
        -0.05786534,
        0.15566404,
        -0.13729814,
        -0.03707834,
        -0.07983456,
        -0.108481675,
        0.16112635,
        -0.011150606,
        0.01945911,
        -0.099366024,
        0.089781314,
        0.12724018,
        -0.03593885,
        -0.106667794,
        -0.13095929,
        -0.047591627,
        0.09683798,
        -0.057589788,
        0.13922743,
        -0.09885907,
        0.07001355,
        -0.12992847,
        0.01975996,
        -0.011617969,
        0.05756133,
        -0.008516221,
        0.018434322,
        -0.059297238,
        0.11092709,
        -0.018003803,
        -0.024855698,
        0.12980309,
        -0.11322059,
        -0.011583539,
        0.110141635,
        0.020605132,
        0.10343785,
        -0.03272351,
        0.075374775,
        0.12273063,
        -0.17099375,
        -0.012671441,
        -0.07308669,
        -0.064804904,
        -0.08775038,
        0.035721254,
        -0.096920244,
        -0.012425323,
        -0.112702556,
        0.056764808,
        0.016973078,
        -0.01782013,
        0.07801467,
        -0.018252246,
        0.06601094,
        -0.008999095,
        0.07378929,
        -0.059190076,
        -0.038310766,
        0.00734738,
        0.106881894,
        0.07244836,
        -0.01666815,
        0.060341697,
        0.14829524,
        0.021456117,
        -0.061706305,
        -0.02468066,
        0.054777957,
        -0.14195769,
        0.14469959,
        -0.10772004,
        -0.08894885,
        0.08285943,
        0.1157722,
        0.06331447,
        0.010889274,
        -0.11282454,
        0.12209733,
        0.08756419,
        0.061246827
      ],
      "base_confidence": 0.6
    },
    {
      "node_id": "reasoning_standalone_9",
      "tier": "Reasoning",
      "weights": [
        -0.122751266,
        0.026324332,
        0.07940863,
        -0.05130721,
        -0.027647246,
        0.008380171,
        0.07074601,
        0.078679755,
        0.07461417,
        0.035938367,
        0.07813806,
        -0.01581102,
        0.026700012,
        0.0719099,
        -0.079431824,
        -0.019590441,
        0.10322864,
        0.09144614,
        -0.020149492,
        -0.12687087,
        -0.07285096,
        -0.05694195,
        0.12613216,
        0.09848944,
        0.10753336,
        -0.033813734,
        0.021197759,
        -0.082420245,
        -0.027434204,
        -0.13317648,
        -0.099413395,
        -0.062491957,
        0.069953874,
        -0.076507464,
        -0.030739486,
        0.0732954,
        0.12113847,
        -0.028370883,
        0.07353699,
        0.056420002,
        -0.0013071719,
        0.09161514,
        0.12984906,
        0.095970124,
        -0.10176336,
        -0.07563686,
        -0.03661457,
        0.046321314,
        0.17796615,
        0.019890836,
        0.118841544,
        0.05813859,
        0.03907417,
        -0.032215327,
        -0.038578548,
        0.09630936,
        -0.097741134,
        -0.176344,
        0.06686218,
        -0.036782652,
        0.021687077,
        0.09117238,
        -0.0031107748,
        0.06371959,
        0.1326606,
        0.04278823,
        -0.09296308,
        0.031201323,
        -0.19761525,
        0.04159291,
        -0.043009836,
        0.12674329,
        0.11893249,
        0.04811271,
        0.07596771,
        -0.05849044,
        0.13892974,
        0.047426242,
        -0.025661845,
        0.084659636,
        -0.16946106,
        -0.12417403,
        -0.043742564,
        0.036314044,
        0.12762645,
        0.13743399,
        -0.07137216,
        0.15671775,
        -0.08601973,
        -0.09127161,
        0.0108913025,
        -0.12628654,
        -0.18142366,
        0.10429945,
        -0.114169955,
        -0.11681013,
        -0.11716854,
        -0.023080466,
        0.09098698,
        0.02435038,
        -0.0046725464,
        -0.18522894,
        0.05053511,
        0.05050415,
        -0.057351355,
        0.006237549,
        0.025233826,
        0.046745867,
        0.13475169,
        0.011703329,
        -0.058371376,
        0.08485102,
        -0.012308745,
        0.05154187,
        -0.06864443,
        -0.1337078,
        -0.20859307,
        -0.105289586,
        -0.16146883,
        -0.07479814,
        0.046040162,
        -0.011750397,
        -0.03543294,
        0.050703064,
        0.09892714,
        -0.071768746,
        -0.04906931,
        0.09074257
      ],
      "base_confidence": 0.6
    },
    {
      "node_id": "reasoning_standalone_10",
      "tier": "Reasoning",
      "weights": [
        -0.03980314,
        0.0041575385,
        0.076752126,
        0.17075866,
        -0.112220116,
        0.10322759,
        0.008942074,
        0.13665225,
        -0.12217107,
        0.036908485,
        -0.076847814,
        -0.0023333237,
        -0.10169937,
        -0.11899247,
        0.029411111,
        0.034112863,
        -0.1003485,
        0.07694389,
        -0.04595734,
        -0.14675511,
        0.10680341,
        0.02166501,
        -0.09739657,
        0.1105485,
        0.044586804,
        -0.031018795,
        0.048537582,
        0.16551502,
        0.045101963,
        -0.12527832,
        0.024531068,
        -0.08198854,
        -0.105933905,
        -0.122178294,
        0.0013786653,
        0.11529969,
        0.06675337,
        0.07087431,
        0.097933345,
        0.10665043,
        -0.10372018,
        0.01751447,
        -0.1242463,
        -0.12141251,
        0.1089316,
        -0.11468471,
        0.14562218,
        0.09545974,
        0.022272298,
        -0.05856211,
        0.016257934,
        -0.02734182,
        0.019022502,
        -0.07339519,
        -0.042151734,
        0.10279619,
        0.034922764,
        -0.11215919,
        -0.14080088,
        -0.09778675,
        -0.15596823,
        0.039167166,
        -0.13333008,
        0.09967873,
        -0.07823676,
        0.086713694,
        -0.0024242864,
        -0.03168264,
        0.10760576,
        0.103971705,
        0.008109368,
        -0.033569213,
        0.14675577,
        0.018333409,
        0.10123368,
        0.014470613,
        -0.0799133,
        0.019962668,
        -0.03919471,
        -0.097101,
        -0.061758827,
        -0.065257974,
        -0.039513525,
        0.024332296,
        0.022363069,
        0.14990412,
        0.08957852,
        -0.015820477,
        -0.13922149,
        0.003551816,
        -0.03949773,
        0.08097884,
        0.09666725,
        -0.17631017,
        0.008064675,
        -0.03788878,
        -0.010268473,
        -0.10914533,
        -0.11193117,
        0.12002518,
        0.045250684,
        -0.036829285,
        0.107243635,
        0.0023919696,
        -0.008607951,
        -0.09925168,
        -0.13992272,
        -0.11659693,
        -0.055757385,
        0.10106079,
        -0.11538061,
        0.10924594,
        0.0912522,
        -0.14222352,
        0.0905774,
        -0.0052193175,
        -0.001853883,
        0.0049385093,
        0.099025,
        0.06678302,
        0.11805548,
        -0.040575672,
        0.11746609,
        0.097013965,
        -0.0630333,
        -0.07767893,
        0.14320469,
        0.015282106
      ],
      "base_confidence": 0.6
    },
    {
      "node_id": "reasoning_standalone_11",
      "tier": "Reasoning",
      "weights": [
        0.031424023,
        -0.14938815,
        0.110423766,
        -0.015449454,
        0.052238517,
        0.055224735,
        -0.08888664,
        0.009154846,
        0.121102296,
        0.021532658,
        0.05126713,
        0.13982005,
        0.10123144,
        0.03871722,
        -0.20521615,
        0.036594942,
        -0.0882441,
        -0.092202455,
        -0.13047408,
        0.066358745,
        -0.035911597,
        0.08345537,
        -0.10221256,
        0.028266517,
        -0.061365962,
        -0.03185652,
        -0.16889498,
        -0.05232436,
        -0.09040626,
        -0.059858285,
        -0.08159909,
        -0.08466914,
        -0.1340124,
        -0.08740588,
        -0.0028268134,
        0.09960039,
        -0.0763121,
        -0.06603537,
        0.13354841,
        -0.012921898,
        0.0033097055,
        0.07908237,
        -0.10120826,
        0.046906278,
        -0.018109167,
        -0.015981637,
        0.012799944,
        -0.04028548,
        0.17824778,
        -0.047573395,
        -0.11036582,
        -0.044193603,
        0.065873146,
        -0.14194384,
        0.12906757,
        -0.16042307,
        -0.02939765,
        -0.10807319,
        0.0044381786,
        0.09239567,
        -0.054441556,
        0.12878919,
        0.19351803,
        -0.022428043,
        0.021373969,
        0.008481909,
        0.11506269,
        -0.14391634,
        0.0456918,
        -0.07942156,
        0.08366437,
        -0.121252224,
        -0.073333934,
        -0.0030177857,
        -0.076312356,
        0.073680304,
        -0.0120637,
        0.13463494,
        0.060758375,
        -0.07927271,
        0.09165613,
        -0.05949707,
        -0.09385372,
        0.0025759188,
        0.12870136,
        0.004241784,
        0.0982703,
        0.044285137,
        -0.17112944,
        0.10168528,
        -0.053803448,
        -0.047265396,
        0.1265459,
        0.1687996,
        0.12213947,
        0.11754599,
        -0.07638151,
        0.0176807,
        0.028688375,
        -0.07674321,
        0.09203084,
        0.0023689207,
        0.033583827,
        0.15556148,
        -0.055131603,
        0.11088371,
        -0.084324874,
        -0.01638636,
        -0.0071321162,
        0.050362132,
        0.004071832,
        -0.11517048,
        0.09481394,
        -0.0010071493,
        -0.044723853,
        -0.09523239,
        -0.043401044,
        -0.021746295,
        -0.029978847,
        -0.13661262,
        -0.071530685,
        0.039282896,
        0.12006239,
        -0.08179797,
        -0.109644495,
        -0.11631975,
        0.015464549,
        -0.05922107
      ],
      "base_confidence": 0.6
    },
    {
      "node_id": "reasoning_standalone_12",
      "tier": "Reasoning",
      "weights": [
        -0.10285113,
        -0.12450482,
        0.14764938,
        -0.117517374,
        -0.041050177,
        0.07897298,
        -0.038191177,
        0.06311494,
        0.062681936,
        -0.07100033,
        0.12833366,
        0.10996474,
        0.0025743814,
        0.11488276,
        0.1717667,
        -0.08216411,
        0.0843975,
        -0.06528597,
        -0.008958822,
        0.15807281,
        0.041444637,
        -0.05510341,
        -0.069894694,
        0.032790843,
        0.07193385,
        -0.11633628,
        -0.06890709,
        -0.1281526,
        0.17940931,
        0.024230115,
        -0.056357022,
        0.022763522,
        0.03437944,
        0.03521308,
        0.113698184,
        0.12765726,
        -0.0110669,
        0.101980664,
        -0.06526058,
        -0.024839507,
        0.13740918,
        -0.12244488,
        -0.04572829,
        -0.018309396,
        -0.15298381,
        -0.055178907,
        0.06151742,
        0.056770407,
        0.08833549,
        -0.044222917,
        0.04378334,
        0.026178194,
        0.115323484,
        0.19839719,
        0.016624039,
        0.058128316,
        0.033525255,
        -0.061402854,
        -0.057878062,
        -0.035898004,
        -0.0640532,
        0.060859255,
        0.091657735,
        -0.0876187,
        -0.06856414,
        -0.07188721,
        -0.031333126,
        0.14371686,
        0.041419875,
        0.016598618,
        -0.025590621,
        -0.044431373,
        0.12197231,
        0.041946787,
        0.118790515,
        0.058270365,
        -0.078916945,
        0.026740694,
        0.15152973,
        0.09127571,
        -0.012858175,
        0.06900995,
        0.120916285,
        -0.04137687,
        -0.14248341,
        0.052462365,
        -0.018911354,
        0.12045153,
        0.03911755,
        0.15322134,
        -0.10178,
        0.087392114,
        -0.072481774,
        -0.09044578,
        -0.050584503,
        0.08126576,
        0.15411568,
        0.028648762,
        0.02031293,
        0.13363016,
        -0.09317744,
        -0.077856064,
        0.12985843,
        0.100373514,
        -0.050236054,
        0.061851766,
        0.08182408,
        0.013240961,
        -0.034607977,
        0.029659918,
        -0.048813093,
        -0.15243551,
        0.109360345,
        -0.12763138,
        -0.10362476,
        -0.051502347,
        0.08581916,
        -0.09213425,
        0.036708035,
        0.19366628,
        -0.036126498,
        0.07225113,
        -0.1590674,
        -0.0037723347,
        -0.044757057,
        -0.028029129,
        0.06324573,
        -0.042883735
      ],
      "base_confidence": 0.6
    },
    {
      "node_id": "reasoning_standalone_13",
      "tier": "Reasoning",
      "weights": [
        0.19550352,
        0.059318345,
        -0.09350513,
        0.15301266,
        -0.091003105,
        0.09759442,
        -0.1524565,
        -0.004311539,
        -0.065671645,
        -0.049496148,
        0.14549688,
        0.12162609,
        -0.06635401,
        -0.040304877,
        -0.07684761,
        0.0870692,
        0.111041084,
        0.05826154,
        0.14548928,
        -0.131719,
        -0.03601329,
        -0.018780844,
        0.11158887,
        -0.123138115,
        0.12308637,
        -0.048211303,
        -0.09509474,
        -0.0322856,
        0.049985383,
        -0.08170666,
        0.0024464023,
        -0.034591284,
        0.028185371,
        0.09980394,
        0.02933529,
        -0.06528745,
        -0.044170927,
        -0.1323074,
        -0.08484773,
        0.1265379,
        -0.0088979965,
        -0.12791434,
        -0.018524026,
        -0.086785756,
        -0.08616501,
        -0.02318408,
        0.053133704,
        -0.024509206,
        -0.12078369,
        -0.07832231,
        -0.08593788,
        -0.009939716,
        0.018906906,
        -0.029482702,
        0.012448596,
        0.038837526,
        -0.042078402,
        -0.03008637,
        0.06476512,
        0.09419863,
        0.024539413,
        0.13082184,
        -0.018833475,
        -0.12478365,
        0.2021556,
        0.047927167,
        0.030150972,
        0.0996863,
        -0.036922727,
        -0.062046587,
        -0.082697585,
        0.039463706,
        0.041224662,
        -0.01067456,
        0.012787903,
        0.03119214,
        -0.09823605,
        0.16698518,
        -0.1246398,
        -0.0695511,
        -0.030551055,
        0.059407465,
        -0.008918963,
        0.07474726,
        -0.10656133,
        -0.16026305,
        0.05949108,
        0.13921604,
        -0.106393635,
        -0.0649149,
        0.13791022,
        0.0819004,
        0.062439516,
        -0.07496362,
        0.11629907,
        -0.044427726,
        0.045111,
        0.019300632,
        -0.093950525,
        -0.08124312,
        -0.07215155,
        -0.09205004,
        -0.08221018,
        0.13742904,
        -0.11318314,
        0.03138783,
        -0.071197055,
        0.029015766,
        -0.13018362,
        0.074902765,
        -0.06648049,
        -0.038571432,
        0.055411216,
        0.061140634,
        -0.053173266,
        0.09125096,
        -0.12925746,
        0.02829382,
        0.10313619,
        -0.036170386,
        0.114369884,
        0.11003599,
        -0.113638975,
        0.08712314,
        0.10450439,
        -0.09742365,
        -0.14528535,
        -0.1477128
      ],
      "base_confidence": 0.6
    },
    {
      "node_id": "reasoning_standalone_14",
      "tier": "Reasoning",
      "weights": [
        0.07987279,
        0.07326451,
        0.022194542,
        0.08968905,
        -0.12518959,
        0.04454131,
        -0.12842016,
        0.023691285,
        0.13221999,
        0.07211582,
        0.11237606,
        0.1560257,
        0.11132196,
        0.12805367,
        0.12475334,
        -0.040171992,
        0.0057222303,
        -0.089124404,
        0.13245666,
        -0.10922543,
        -0.110469736,
        0.09902429,
        -0.0029412443,
        0.123948485,
        0.008161258,
        0.10369461,
        0.11459837,
        -0.14880243,
        -0.13544223,
        0.117533036,
        0.03909415,
        0.10047131,
        -0.118544385,
        -0.025990572,
        -0.054274283,
        -0.048894633,
        -0.1020448,
        0.08426565,
        0.099011354,
        -0.13688287,
        0.06523755,
        0.02855172,
        0.042373545,
        -0.00782201,
        0.14322165,
        0.039237283,
        -0.09052542,
        -0.13289428,
        0.041506603,
        0.10647393,
        0.0014000894,
        0.022819387,
        0.04221952,
        -0.062092524,
        -0.007979041,
        -0.018388446,
        -0.1237013,
        -0.06815054,
        -0.08554136,
        -0.07474301,
        0.09398272,
        -0.094897285,
        -0.07824937,
        -0.12699382,
        -0.056719247,
        0.15523532,
        -0.09265843,
        0.018980587,
        0.12281494,
        -0.09762706,
        -0.1418094,
        -0.00321248,
        -0.025526604,
        0.10933735,
        0.073961385,
        0.17487435,
        -0.07894862,
        -0.0012610968,
        -0.10467907,
        0.08235682,
        -0.026966212,
        0.038383126,
        -0.07809537,
        -0.0889572,
        0.113984846,
        0.038788144,
        -0.08110553,
        0.13174307,
        -0.04742709,
        -0.029090794,
        -0.007802246,
        0.0560914,
        0.04670439,
        0.01098773,
        0.03448051,
        -0.11062295,
        0.15645947,
        0.09148321,
        0.10998808,
        -0.04213757,
        0.095758006,
        -0.04586784,
        0.070715286,
        -0.073285915,
        0.06240751,
        -0.0893737,
        0.08435435,
        -0.11470165,
        -0.056460857,
        0.1075873,
        0.13330601,
        0.040090766,
        0.0542963,
        -0.13929294,
        0.1059142,
        -0.031359196,
        0.062334377,
        -0.01589578,
        0.037462216,
        -0.15230171,
        0.12796368,
        0.040277123,
        -0.08514629,
        0.018022276,
        0.038229857,
        0.06106687,
        0.0322374,
        0.033244226
      ],
      "base_confidence": 0.6
    },
    {
      "node_id": "deep_standalone_0",
      "tier": "Deep",
      "weights": [
        -0.017367879,
        0.086760774,
        0.0074089738,
        -0.15589944,
        0.02700166,
        0.088677764,
        0.036575776,
        0.031042408,
        -0.0667911,
        -0.055647396,
        -0.1333399,
        0.03076323,
        0.13370301,
        -0.021496924,
        -0.021553755,
        0.022614975,
        0.12529403,
        -0.03155969,
        0.08688563,
        0.015158283,
        0.11555494,
        0.16608658,
        -0.070817634,
        0.044810098,
        0.10560314,
        0.08781899,
        0.096723534,
        0.038779613,
        0.08863193,
        -0.11925556,
        -0.105475344,
        -0.15021956,
        0.12363038,
        -0.12043632,
        0.091756746,
        0.14987986,
        -0.14778471,
        0.05023393,
        -0.036173187,
        0.050854575,
        0.021081286,
        0.038088802,
        0.08218708,
        0.04097599,
        0.02559417,
        0.07419031,
        -0.13447022,
        0.08279476,
        0.06709194,
        0.05725284,
        0.070649855,
        -0.15894084,
        0.003851026,
        0.10199318,
        -0.032217577,
        -0.15444744,
        0.080173515,
        -0.1422083,
        -0.120360464,
        -0.07924746,
        -0.091848895,
        -0.014552361,
        0.03753964,
        0.061583813,
        0.08304531,
        -0.004629733,
        0.0024240136,
        0.051594406,
        0.03374494,
        -0.06789515,
        0.081512,
        -0.10509918,
        -0.0032959196,
        0.000731391,
        -0.12740827,
        -0.00213355,
        0.08785062,
        0.09403513,
        -0.093484126,
        0.055832576,
        -0.06295165,
        -0.11386264,
        -0.17059718,
        0.05804218,
        0.0143000195,
        -0.12820831,
        -0.09147703,
        0.06086508,
        0.114842534,
        0.07753909,
        0.03784976,
        0.04470911,
        0.022779068,
        -0.07583943,
        0.10875791,
        -0.1356416,
        0.028282262,
        0.02192562,
        0.088415846,
        0.07637289,
        0.06995901,
        0.040426925,
        -0.09516912,
        -0.09029361,
        -0.12669794,
        0.060415063,
        0.12713708,
        0.089074194,
        -0.088604584,
        0.050582804,
        -0.07984253,
        0.11680491,
        -0.1125699,
        -0.04038726,
        0.08622399,
        0.12927705,
        0.047367133,
        0.107303225,
        0.124929465,
        -0.033634085,
        0.0051639825,
        -0.11399564,
        -0.11032781,
        -0.14636524,
        -0.09144561,
        -0.0744428,
        -0.13338526,
        -0.115479596
      ],
      "base_confidence": 0.5
    },
    {
      "node_id": "deep_standalone_1",
      "tier": "Deep",
      "weights": [
        -0.023835033,
        0.1016746,
        0.15943113,
        -0.078913055,
        -0.08998956,
        -0.06669512,
        0.09194676,
        -0.0019967982,
        -0.043883633,
        -0.1429137,
        0.078856125,
        -0.009123505,
        -0.042982742,
        -0.012853674,
        0.1037911,
        0.12615584,
        -0.18490152,
        0.15377834,
        -0.059231468,
        -0.12568925,
        0.13880377,
        0.015328287,
        -0.015826227,
        0.010082482,
        -0.06604367,
        -0.05543701,
        -0.10947471,
        -0.12096001,
        -0.0983479,
        -0.03871032,
        -0.09746229,
        0.087724485,
        0.08068337,
        0.033136174,
        0.008918022,
        -0.008920161,
        -0.09954296,
        0.015002615,
        -0.13905911,
        0.078569226,
        -0.11257363,
        0.0042582685,
        0.08080114,
        0.123374626,
        0.10409271,
        -0.092505254,
        0.02990571,
        -0.058716994,
        0.053274978,
        0.16519529,
        0.10595217,
        0.080506936,
        -0.128661,
        -0.040206123,
        -0.096713856,
        -0.11703874,
        -0.08933236,
        -0.02700312,
        -0.11556748,
        0.09967926,
        0.022159202,
        0.06182131,
        -0.013771884,
        -0.030844351,
        0.1387388,
        -0.16378717,
        0.0015495517,
        -0.07970343,
        -0.11260088,
        0.015168003,
        0.107134596,
        -0.13204119,
        -0.037415348,
        -0.008134843,
        0.0927512,
        0.12714459,
        0.03660368,
        0.0130630415,
        -0.12733059,
        -0.1170554,
        -0.009356597,
        -0.10328927,
        0.16426452,
        -0.05063921,
        0.006519522,
        0.00094045437,
        0.037925005,
        -0.093222156,
        -0.13495366,
        -0.004127895,
        0.07746036,
        -0.018545687,
        -0.04073308,
        -0.09927772,
        0.056423943,
        -0.00026786028,
        0.14146245,
        -0.10560113,
        0.1003247,
        0.0031468912,
        0.13341458,
        0.00909091,
        -0.059060346,
        0.0018516512,
        0.1179106,
        0.09869314,
        -0.075411126,
        0.06762086,
        -0.06351972,
        -0.09694969,
        0.12110494,
        -0.11848135,
        0.0398719,
        -0.12161977,
        0.000025125762,
        0.1039102,
        -0.069713935,
        -0.05777769,
        -0.063583836,
        0.084686704,
        0.07548986,
        0.046354037,
        -0.14545837,
        -0.06603314,
        -0.0679595,
        0.15522924,
        0.05093532,
        -0.0014593336
      ],
      "base_confidence": 0.5
    },
    {
      "node_id": "deep_standalone_2",
      "tier": "Deep",
      "weights": [
        0.17911516,
        0.077749595,
        0.025005845,
        -0.009734258,
        0.11398814,
        0.03263797,
        -0.11891444,
        -0.050685238,
        -0.004573207,
        0.0561412,
        -0.12546463,
        -0.078381255,
        -0.012207957,
        -0.049773198,
        0.058151793,
        -0.06922547,
        -0.06618708,
        -0.103669815,
        -0.02153666,
        -0.03222569,
        0.009855746,
        0.05533544,
        -0.093939714,
        0.14157262,
        -0.04738287,
        0.0040545855,
        -0.068801574,
        -0.053702928,
        -0.1402536,
        0.014035091,
        -0.10711247,
        0.166577,
        0.21268283,
        -0.0021334423,
        -0.1394969,
        0.08816667,
        0.1541989,
        0.07384575,
        -0.053324033,
        0.07806315,
        0.11228128,
        -0.026567513,
        -0.041691013,
        -0.0035387005,
        -0.0781648,
        -0.06686055,
        0.090481795,
        0.10116964,
        0.06508755,
        -0.0070938244,
        0.0021221617,
        -0.10955777,
        -0.1525231,
        0.16067708,
        -0.04163077,
        0.12994722,
        -0.045811407,
        0.08375285,
        -0.13024946,
        -0.021346943,
        0.12594272,
        0.08834966,
        0.110928535,
        0.12806188,
        -0.10294095,
        0.06262399,
        0.012952625,
        -0.04283268,
        -0.045611396,
        -0.083830625,
        -0.12373258,
        -0.044921275,
        0.034798615,
        0.058615256,
        0.010917149,
        -0.05026547,
        -0.101805605,
        -0.0057642465,
        -5.4952704e-7,
        -0.1421619,
        -0.009695225,
        -0.07565881,
        0.034203872,
        0.089217946,
        0.049453303,
        0.03139146,
        -0.19278543,
        -0.07710137,
        -0.031701785,
        -0.20370424,
        -0.027998932,
        0.0140334675,
        0.058964793,
        0.010558514,
        0.15243949,
        0.030510388,
        0.12677962,
        -0.0009013369,
        -0.0008428567,
        -0.14642535,
        -0.05195473,
        0.14086515,
        0.06769562,
        0.04392122,
        -0.13648197,
        -0.078749515,
        -0.04168869,
        -0.1118622,
        0.07023973,
        0.0803107,
        -0.051311743,
        -0.1064629,
        -0.003883777,
        0.052299976,
        -0.0056190756,
        -0.043649733,
        -0.084009014,
        0.1269417,
        -0.110794134,
        -0.033949945,
        -0.06985821,
        -0.14682415,
        -0.19617756,
        -0.0123270415,
        0.025236793,
        -0.07336628,
        -0.043496426,
        -0.02093335
      ],
      "base_confidence": 0.5
    },
    {
      "node_id": "deep_standalone_3",
      "tier": "Deep",
      "weights": [
        0.038339768,
        0.08408187,
        -0.05189756,
        -0.15936352,
        0.08639383,
        0.04466858,
        0.10526098,
        0.020813834,
        0.08252528,
        0.14470059,
        -0.10283864,
        -0.14956333,
        -0.03894433,
        0.10531162,
        0.13791145,
        -0.015662631,
        0.05318541,
        0.071316026,
        -0.119528055,
        -0.061197467,
        -0.12357872,
        -0.016926507,
        -0.052098427,
        0.021225566,
        -0.015094671,
        0.06460075,
        -0.079958946,
        -0.113659285,
        0.13952464,
        0.09989111,
        0.127215,
        -0.08084706,
        -0.081486724,
        0.11797092,
        -0.06976907,
        0.13039204,
        -0.030781081,
        0.0038688025,
        -0.08544518,
        0.11071479,
        0.04014244,
        0.16698702,
        -0.03653199,
        0.0416469,
        0.07499664,
        0.050402768,
        0.083281614,
        0.084341705,
        0.03854828,
        -0.15526994,
        -0.05558542,
        0.035142098,
        0.078377694,
        0.102797955,
        0.008137918,
        0.090251304,
        -0.00792597,
        -0.03418296,
        0.104524784,
        -0.047510386,
        -0.12748347,
        -0.059547298,
        -0.045097914,
        0.09392933,
        0.17825514,
        0.039292008,
        0.028061831,
        0.0059204614,
        -0.03958465,
        0.046318907,
        0.013911734,
        0.068731174,
        0.113936625,
        0.12829839,
        -0.001200761,
        -0.029628541,
        0.049911663,
        0.11387618,
        -0.05147798,
        0.021732112,
        0.12068901,
        -0.010586806,
        -0.14979154,
        -0.15615663,
        -0.09516972,
        -0.12278594,
        0.04687883,
        -0.1561601,
        -0.119359516,
        -0.067124374,
        0.033667814,
        0.14435625,
        -0.027866192,
        0.14652807,
        -0.033584505,
        0.11124418,
        0.077075295,
        0.14816682,
        0.10004971,
        -0.03300267,
        -0.10967033,
        -0.00770243,
        0.047642533,
        -0.037184857,
        0.1091812,
        -0.014897908,
        -0.08418949,
        0.04191205,
        -0.05444288,
        0.021896286,
        0.12130005,
        -0.099259034,
        0.13407016,
        -0.09458498,
        0.12837107,
        -0.0020416342,
        -0.13460761,
        0.04906074,
        0.06767569,
        -0.049359698,
        0.11854232,
        -0.0828427,
        0.042916454,
        -0.033050332,
        -0.07257636,
        0.10808403,
        -0.07730594,
        -0.09914459
      ],
      "base_confidence": 0.5
    },
    {
      "node_id": "deep_standalone_4",
      "tier": "Deep",
      "weights": [
        0.17402011,
        0.06887434,
        0.12567744,
        -0.09270495,
        0.10707168,
        -0.0061921407,
        0.022850817,
        0.1152732,
        -0.08348635,
        -0.12878445,
        0.08266905,
        0.04872916,
        -0.14673212,
        -0.0041456814,
        -0.026743619,
        0.1418261,
        -0.059977364,
        0.025780985,
        -0.03535596,
        0.14387788,
        -0.051288184,
        0.07003541,
        0.072130695,
        -0.14496653,
        -0.08439274,
        0.13254802,
        0.15092342,
        -0.093192555,
        0.14049894,
        -0.07861223,
        -0.075030655,
        0.065062284,
        0.14401281,
        -0.07551418,
        -0.045010343,
        -0.053074703,
        -0.040542264,
        0.05236583,
        0.04497066,
        0.06755012,
        -0.09899363,
        -0.062430184,
        0.07588379,
        0.06433393,
        0.06900524,
        0.0964668,
        -0.10168144,
        0.1699758,
        0.029047191,
        0.09395081,
        -0.021129882,
        -0.08772838,
        0.04151594,
        -0.0010865643,
        -0.08058421,
        -0.06417331,
        0.010266697,
        -0.07614038,
        0.06550552,
        0.07742719,
        -0.049847633,
        0.1389643,
        -0.13075112,
        -0.079511456,
        -0.07997459,
        0.13314314,
        -0.014959491,
        -0.11720358,
        0.13337147,
        0.1174378,
        -0.0764944,
        0.041845664,
        -0.051837455,
        0.06400892,
        -0.07837643,
        0.05759863,
        -0.06751097,
        -0.020225309,
        0.027270647,
        0.062254675,
        -0.067719415,
        0.12624048,
        -0.012333522,
        -0.09139917,
        0.008395999,
        0.048956696,
        0.07732031,
        -0.18877715,
        -0.02503366,
        0.13973112,
        0.103684105,
        0.008790903,
        0.14268115,
        0.019885806,
        -0.15344152,
        0.07044311,
        -0.10427831,
        0.05683873,
        0.0054970155,
        -0.024664398,
        -0.12645695,
        -0.033452753,
        0.084140815,
        0.0912802,
        -0.19989718,
        -0.08106899,
        0.066930056,
        -0.076846525,
        0.083358385,
        0.023852479,
        -0.032108348,
        -0.052872162,
        0.003662054,
        -0.0086357705,
        0.15955967,
        -0.06222737,
        -0.064908765,
        -0.042333297,
        -0.16320622,
        -0.00033185876,
        -0.0042607533,
        0.0044896957,
        -0.09263397,
        0.1303762,
        -0.025576249,
        0.1186402,
        -0.045920398,
        -0.03220193
      ],
      "base_confidence": 0.5
    },
    {
      "node_id": "deep_standalone_5",
      "tier": "Deep",
      "weights": [
        0.039998464,
        0.023594672,
        0.02074223,
        0.101163454,
        0.034821708,
        0.1650302,
        0.015009727,
        -0.13673358,
        -0.07762228,
        0.11243236,
        0.13763846,
        -0.0020413292,
        -0.012822432,
        -0.052304246,
        0.13671266,
        0.017098665,
        0.11406175,
        0.12647647,
        0.0394966,
        0.11528539,
        -0.031972293,
        0.12667842,
        0.08848183,
        0.039028555,
        0.03866276,
        0.061442338,
        -0.0299161,
        -0.1140761,
        -0.07274525,
        -0.0930002,
        -0.06645551,
        -0.0970339,
        -0.18007605,
        0.043666504,
        -0.0045110695,
        0.049584303,
        -0.08689684,
        -0.041999843,
        -0.15507595,
        -0.0026503764,
        0.077743076,
        -0.034344055,
        -0.067363955,
        0.049936946,
        0.10314171,
        -0.0322868,
        -0.018516283,
        -0.07566322,
        0.0035946076,
        -0.13999034,
        0.10429709,
        0.115469314,
        -0.076420486,
        -0.070865124,
        0.09420437,
        -0.11610103,
        0.13088788,
        -0.011805768,
        -0.13160202,
        0.030486474,
        -0.024538605,
        0.054171186,
        -0.11364326,
        0.122900695,
        -0.020228026,
        -0.027682625,
        0.10252064,
        0.012033042,
        0.027445776,
        0.06311799,
        -0.0011880159,
        0.021290246,
        0.08061213,
        0.080445684,
        -0.12408851,
        -0.017026972,
        -0.00030149386,
        0.15753643,
        0.14301689,
        -0.13157536,
        -0.051882755,
        -0.028384155,
        -0.014699578,
        -0.02808628,
        0.1699639,
        -0.113755934,
        -0.045147266,
        -0.11174556,
        0.04130258,
        0.054420974,
        -0.13206983,
        -0.0644284,
        0.13378105,
        -0.008786791,
        -0.073696345,
        -0.019078597,
        0.12448563,
        -0.025941473,
        -0.0877525,
        0.08864028,
        -0.059683323,
        0.0017026213,
        -0.007531538,
        -0.14332335,
        0.07310566,
        -0.10168747,
        0.09097787,
        0.12012918,
        0.1567842,
        0.020709386,
        0.097829506,
        -0.11068038,
        -0.060560454,
        0.0775931,
        -0.07736839,
        0.05775343,
        0.0747697,
        -0.09524168,
        -0.19069323,
        0.04223851,
        0.024261776,
        -0.03310481,
        -0.04241381,
        0.1710232,
        0.11000559,
        -0.1486923,
        -0.058633428,
        0.1196571
      ],
      "base_confidence": 0.5
    },
    {
      "node_id": "deep_standalone_6",
      "tier": "Deep",
      "weights": [
        0.09593668,
        -0.035975344,
        0.04723383,
        -0.043621432,
        0.008184406,
        0.027857179,
        0.048422236,
        0.04706089,
        0.012844712,
        0.052452177,
        -0.032756716,
        -0.02500014,
        -0.038416795,
        0.0034297518,
        0.07864633,
        -0.03197964,
        0.024215396,
        0.0029217312,
        0.031605933,
        -0.0027259875,
        -0.023799825,
        0.016615542,
        -0.007790736,
        -0.012642355,
        -0.020548193,
        0.006105117,
        0.18542019,
        -0.0105717955,
        0.0038765343,
        0.07666986,
        0.046855774,
        0.031570677,
        -0.032502443,
        -0.018413376,
        -0.0604001,
        -0.027445342,
        -0.054892983,
        -0.049310938,
        -0.05103684,
        -0.0071668057,
        -0.06609984,
        -0.046200898,
        -0.071662374,
        0.039354213,
        -0.029947309,
        -0.035200026,
        -0.019193264,
        -0.035286155,
        0.032979723,
        0.33452258,
        0.34813896,
        0.15622419,
        0.033009466,
        0.14308931,
        0.025706757,
        0.057313085,
        -0.03204575,
        0.011682457,
        0.008560549,
        -0.002671838,
        -0.014407704,
        -0.009585746,
        0.14364222,
        0.119715884,
        0.055596422,
        0.09051569,
        0.075210385,
        0.11599407,
        0.10451749,
        0.12909997,
        0.1059856,
        0.043116868,
        0.067985915,
        0.05238285,
        0.087711416,
        0.049564876,
        0.006821651,
        0.12727508,
        0.10278409,
        0.06657998,
        0.09408236,
        0.07154155,
        0.034722365,
        0.06289396,
        0.09297608,
        0.081893966,
        0.016910812,
        0.033650603,
        0.046713494,
        0.03465532,
        0.10070967,
        0.013323451,
        0.008907558,
        -0.008291054,
        0.020619009,
        -0.026188018,
        -0.038872845,
        0.023283388,
        0.04212638,
        0.016112974,
        0.03658852,
        0.20153724,
        0.027755434,
        0.16965586,
        0.12346271,
        0.062095713,
        0.0430408,
        0.159856,
        0.10337869,
        0.03212919,
        -0.03143507,
        0.052296575,
        -0.0011943184,
        0.14286727,
        -0.009535056,
        -0.049033545,
        0.08506974,
        0.049792327,
        0.13521034,
        0.35601476,
        0.108926564,
        0.116591714,
        0.07797207,
        0.19363844,
        0.088338934,
        0.052242726,
        -0.029863149,
        -0.046321206
      ],
      "base_confidence": 0.5
    },
    {
      "node_id": "deep_standalone_7",
      "tier": "Deep",
      "weights": [
        0.041413132,
        0.060958616,
        -0.06484355,
        -0.024935242,
        0.13943549,
        0.012801578,
        0.0029399677,
        -0.09277889,
        -0.007771578,
        0.159305,
        0.10958579,
        0.15640849,
        0.12186238,
        -0.13694154,
        0.067406565,
        0.00058822846,
        -0.101084374,
        0.10116756,
        -0.075896,
        -0.029707419,
        0.090021156,
        0.13819769,
        0.1635312,
        -0.031159366,
        -0.09150764,
        -0.02163422,
        -0.08493711,
        0.05134635,
        -0.013048225,
        0.13561255,
        -0.014306484,
        -0.08435427,
        0.042484548,
        -0.015269173,
        0.076930635,
        0.0016710261,
        0.064612225,
        0.078400016,
        -0.099095516,
        -0.09454068,
        -0.115514934,
        -0.011718367,
        -0.12994942,
        0.14377719,
        -0.014694079,
        0.035650425,
        -0.12939826,
        0.122290105,
        -0.084838785,
        0.10546035,
        0.07851651,
        -0.06321604,
        0.009729208,
        -0.07337047,
        -0.12313689,
        -0.12646325,
        0.050159674,
        -0.11575158,
        0.07054217,
        -0.013373709,
        0.057828184,
        0.05539077,
        0.08765849,
        0.020666493,
        -0.025573792,
        0.12006298,
        -0.04563368,
        0.08174451,
        -0.102853335,
        0.058774874,
        0.00613569,
        0.06901843,
        0.14070031,
        -0.065250635,
        -0.0024372507,
        -0.11841766,
        -0.08525213,
        -0.13937953,
        -0.043701448,
        -0.07139629,
        -0.10928595,
        0.033141896,
        0.13212718,
        -0.160674,
        -0.14063305,
        0.12834668,
        -0.12976456,
        0.060407765,
        -0.026155958,
        -0.116543464,
        -0.07133842,
        0.08222985,
        0.097343095,
        -0.027290167,
        -0.07872963,
        0.096934095,
        -0.11429787,
        0.18908143,
        0.0075159455,
        0.11244739,
        0.048598226,
        0.06271712,
        -0.04074612,
        0.008187453,
        0.107427344,
        0.062733054,
        0.03498364,
        0.0694583,
        -0.09834772,
        0.1310872,
        0.037442353,
        0.01311938,
        0.11642268,
        0.031993315,
        -0.12607348,
        -0.08318245,
        0.060332462,
        0.074245445,
        -0.01649893,
        -0.10259115,
        0.10853864,
        0.016011724,
        0.059762992,
        -0.051490545,
        -0.050978243,
        -0.12956451,
        0.040510844,
        -0.13169806
      ],
      "base_confidence": 0.5
    },
    {
      "node_id": "deep_standalone_8",
      "tier": "Deep",
      "weights": [
        0.020427119,
        0.0710521,
        0.16781211,
        -0.029866083,
        0.03061966,
        0.15817524,
        0.16176035,
        -0.015659798,
        -0.103118144,
        0.12388831,
        -0.03449116,
        0.022750838,
        -0.058089122,
        0.04155315,
        -0.092598766,
        0.025340747,
        -0.085790396,
        -0.15303573,
        -0.06111763,
        0.07303984,
        -0.03911793,
        0.027864024,
        0.044790633,
        0.11873141,
        0.026206883,
        -0.028727485,
        -0.07782467,
        -0.025804061,
        0.11801622,
        0.119606,
        -0.069648445,
        -0.10137579,
        -0.13792595,
        0.14354847,
        0.039272692,
        -0.07875883,
        0.09007308,
        -0.10850002,
        -0.06879376,
        0.09369549,
        0.14533514,
        -0.13634561,
        0.039130256,
        -0.03323264,
        0.075848654,
        -0.13633226,
        -0.08040847,
        -0.07083108,
        -0.0319583,
        -0.056120757,
        0.028871464,
        -0.088906586,
        0.065601364,
        0.095191866,
        -0.09464435,
        -0.048136413,
        0.08046685,
        -0.073533505,
        -0.06208907,
        -0.18237048,
        0.053775292,
        0.07169724,
        -0.084988445,
        -0.13395594,
        -0.18268836,
        -0.14288992,
        -0.023894122,
        0.011633461,
        -0.122445084,
        -0.050432507,
        -0.095282495,
        0.006262396,
        -0.05881827,
        -0.08093257,
        0.20479566,
        -0.09733378,
        -0.07013077,
        -0.012880401,
        -0.03797448,
        -0.014372376,
        0.111820705,
        0.19149831,
        -0.08659691,
        -0.020119514,
        0.07464893,
        0.03228046,
        0.067378536,
        0.0313632,
        -0.038251463,
        0.07770857,
        0.08477881,
        0.05408017,
        0.08564022,
        -0.10850635,
        0.07815941,
        -0.090715975,
        -0.12693244,
        -0.10310483,
        0.1411033,
        0.016410856,
        -0.0000129946375,
        0.019437606,
        0.00065169856,
        0.051520657,
        0.0015360849,
        -0.018188978,
        -0.056908455,
        0.036321357,
        0.00046037926,
        -0.12779829,
        0.11652462,
        0.11399707,
        -0.058257125,
        0.09648848,
        -0.113507144,
        -0.014021398,
        -0.07451728,
        0.093789764,
        -0.07621469,
        -0.14294153,
        0.07284174,
        -0.08046345,
        0.026071975,
        -0.071242094,
        -0.07794142,
        0.090627246,
        -0.09496964,
        0.08948241
      ],
      "base_confidence": 0.5
    },
    {
      "node_id": "deep_standalone_9",
      "tier": "Deep",
      "weights": [
        0.14235398,
        -0.029411556,
        -0.081603445,
        -0.05214956,
        -0.12213528,
        -0.08262531,
        0.020238137,
        -0.067241624,
        0.02642679,
        0.04768576,
        0.079199694,
        -0.04731846,
        0.07435062,
        0.08829238,
        0.013929311,
        -0.01236345,
        0.13619141,
        -0.13522366,
        0.08255178,
        0.2158718,
        0.0031955563,
        -0.011961499,
        0.063044205,
        0.033808045,
        0.10835757,
        0.086184144,
        0.015272827,
        0.08083998,
        -0.06490012,
        -0.16080683,
        -0.14653455,
        -0.08036473,
        0.034921963,
        -0.043472994,
        -0.1657671,
        -0.03592842,
        0.100184895,
        0.08900721,
        -0.067680806,
        0.023735913,
        0.055311136,
        -0.07411346,
        -0.009936946,
        0.1531494,
        0.024893185,
        0.12828901,
        0.15000373,
        0.08212045,
        -0.00080284337,
        -0.19429702,
        0.15608518,
        0.06654048,
        0.05167394,
        -0.14562085,
        -0.07192897,
        -0.07408357,
        -0.028745525,
        0.026379138,
        -0.10962844,
        0.025639314,
        0.104762085,
        0.010276195,
        0.19165508,
        0.00855585,
        -0.070501104,
        -0.016470848,
        0.06485806,
        0.06309399,
        -0.13682637,
        0.03453112,
        0.02627097,
        0.14273359,
        0.015062882,
        -0.10912511,
        -0.022271356,
        0.066147484,
        0.008459962,
        -0.010076151,
        -0.08682243,
        0.034534726,
        0.072265916,
        -0.13386096,
        0.11322063,
        0.064603984,
        -0.14850251,
        0.045780715,
        0.07125538,
        -0.18531224,
        -0.15065928,
        0.14545768,
        0.1226814,
        0.08605515,
        0.05524688,
        0.01925994,
        0.09047433,
        -0.026195403,
        -0.052711125,
        0.05304503,
        0.034407116,
        -0.120572254,
        0.049238972,
        -0.13596196,
        0.034587525,
        -0.06057818,
        0.041098934,
        -0.03042228,
        0.08039371,
        -0.1570908,
        -0.021728262,
        -0.045638707,
        0.008147968,
        0.11474015,
        -0.012890206,
        -0.10823491,
        -0.086693,
        -0.018419243,
        0.03446843,
        0.012625679,
        0.12079532,
        0.019828664,
        0.09298628,
        -0.06915581,
        0.08004996,
        0.09509724,
        -0.04483207,
        0.0946791,
        0.06611533,
        0.045597013
      ],
      "base_confidence": 0.5
    },
    {
      "node_id": "deep_standalone_10",
      "tier": "Deep",
      "weights": [
        0.021609306,
        -0.054388374,
        -0.063106984,
        -0.06813484,
        -0.13279392,
        -0.10098762,
        0.023530817,
        -0.11995873,
        0.122851305,
        -0.011697667,
        -0.004873086,
        -0.0024251358,
        -0.05082678,
        -0.056726728,
        -0.10849083,
        -0.11232266,
        -0.07252581,
        0.13791329,
        0.10749933,
        -0.05802102,
        -0.13010287,
        0.06747934,
        -0.011380161,
        0.06928246,
        0.05854061,
        0.14037551,
        0.063658886,
        0.068380445,
        -0.09214986,
        -0.042262424,
        0.1142052,
        -0.14826488,
        0.14452206,
        0.0915811,
        0.114979476,
        -0.07644436,
        -0.16781797,
        -0.040393144,
        0.0035669133,
        -0.08720568,
        0.08300744,
        0.050770186,
        0.09811642,
        0.043308925,
        -0.16667174,
        -0.04604617,
        0.08207286,
        -0.07919338,
        -0.13453312,
        0.01589536,
        0.040210865,
        0.14349204,
        -0.038317796,
        0.038840227,
        -0.12051786,
        -0.039499555,
        0.054172188,
        -0.21259862,
        0.10445854,
        -0.13645515,
        0.0116234375,
        0.05136062,
        -0.08775963,
        0.06235537,
        -0.13111196,
        0.017920673,
        -0.15318346,
        -0.08897182,
        -0.0668856,
        -0.018452836,
        -0.1296003,
        -0.10009623,
        -0.08073274,
        0.075212926,
        0.11244769,
        -0.14213836,
        -0.09089626,
        0.16245005,
        0.06836651,
        -0.032588303,
        0.0864614,
        -0.063927464,
        0.01997868,
        0.08396017,
        -0.108629376,
        -0.13541023,
        -0.050873876,
        -0.022615133,
        -0.12435016,
        0.030148245,
        -0.055294562,
        -0.09454218,
        0.059880916,
        -0.03771537,
        0.01704025,
        0.11639748,
        -0.08015209,
        0.096441664,
        -0.08615588,
        0.033875644,
        0.13529964,
        -0.013492375,
        -0.05507652,
        0.14670405,
        -0.05452349,
        -0.10485071,
        0.06486742,
        -0.0065574115,
        0.01814318,
        -0.049658723,
        -0.007353683,
        -0.07200251,
        0.07313114,
        -0.10643159,
        0.09959208,
        -0.034849986,
        0.055575978,
        0.0030035088,
        -0.05687198,
        0.10974131,
        -0.060411006,
        -0.12930481,
        0.006570987,
        0.022471081,
        -0.16474645,
        0.017360907,
        0.018814111,
        0.04234638
      ],
      "base_confidence": 0.5
    },
    {
      "node_id": "deep_standalone_11",
      "tier": "Deep",
      "weights": [
        -0.010572578,
        0.041358706,
        -0.0064996933,
        0.00016706504,
        0.008526449,
        0.041171066,
        -0.003449057,
        0.023854755,
        0.032405555,
        -0.02564411,
        0.0107019665,
        -0.009693606,
        0.013924698,
        -0.021491747,
        0.0244596,
        -0.011893291,
        0.037452947,
        0.05378763,
        -0.0047954363,
        0.06733655,
        -0.0018604262,
        0.014894238,
        -0.0011692242,
        -0.015492386,
        0.011274125,
        0.0142069245,
        0.14390236,
        0.03040163,
        0.06844788,
        0.07511264,
        0.039595038,
        0.05738677,
        -0.026076464,
        0.00040390264,
        0.015774064,
        -0.0075829034,
        0.015899459,
        0.013132878,
        0.012082125,
        0.033759966,
        0.018215142,
        0.037307434,
        -0.020767534,
        -0.025680905,
        -0.022242405,
        0.011098956,
        0.020187108,
        -0.054184113,
        0.012458174,
        0.36510545,
        0.31892598,
        0.20714673,
        0.034281317,
        0.19083104,
        0.025150886,
        -0.0009870647,
        -0.004836827,
        0.017340582,
        -0.0010211167,
        -0.038107548,
        0.039704237,
        0.022927802,
        0.12581474,
        0.088072434,
        0.09340968,
        0.119727895,
        0.100322306,
        0.085837945,
        0.063584335,
        0.10391195,
        0.12897332,
        0.103395306,
        0.061726864,
        0.081576265,
        0.055956632,
        0.09673987,
        0.0750972,
        0.10614354,
        0.04346571,
        0.1140146,
        0.06380054,
        0.10055191,
        0.0906837,
        0.0674207,
        0.10815128,
        0.099738486,
        0.041155647,
        0.0379807,
        0.030984629,
        0.029006157,
        0.038320933,
        0.024120051,
        0.03847073,
        -0.016924078,
        -0.0022154858,
        0.023032933,
        -0.018968942,
        0.01164692,
        0.04230418,
        0.0008352934,
        -0.018079199,
        0.2388735,
        0.014087672,
        0.19404298,
        0.12791961,
        -0.03415923,
        0.00015317768,
        0.1255205,
        0.17644012,
        0.014990611,
        -0.005556486,
        0.0031824869,
        -0.009881525,
        0.13032058,
        -0.031620856,
        0.014556526,
        0.119599685,
        0.077403374,
        0.14549318,
        0.3121312,
        0.19361189,
        0.06515103,
        0.039294865,
        0.18381676,
        0.0026657367,
        0.024238097,
        0.006106401,
        -0.019629862
      ],
      "base_confidence": 0.5
    },
    {
      "node_id": "deep_standalone_12",
      "tier": "Deep",
      "weights": [
        0.017071316,
        0.010317008,
        -0.002729727,
        -0.021589963,
        0.024962125,
        0.0329032,
        -0.023213545,
        0.0047672438,
        0.02023575,
        0.01361483,
        -0.009455795,
        -0.012196359,
        0.03443638,
        0.05197426,
        0.007078499,
        -0.002127973,
        -0.0240342,
        0.019620296,
        0.06069569,
        0.00834088,
        0.005683313,
        -0.031883504,
        -0.020743482,
        -0.04305953,
        0.026649429,
        0.03463241,
        0.19495367,
        -0.011979878,
        0.045773793,
        0.09193056,
        0.004746774,
        -0.011966126,
        -0.0057326485,
        0.0038209616,
        -0.023084588,
        -0.0010385476,
        -0.027260784,
        -0.0036200262,
        0.025659699,
        0.016454402,
        0.022545645,
        0.012009064,
        -0.0023527234,
        0.0023282338,
        -0.048382632,
        -0.015169399,
        -0.0019090724,
        0.026515761,
        -0.03594825,
        0.3356324,
        0.38122326,
        0.15089473,
        0.048576914,
        0.16260582,
        -0.024793018,
        0.044772916,
        -0.027840892,
        0.03786696,
        0.016479803,
        0.0241505,
        -0.0030975316,
        0.009822077,
        0.11015189,
        0.08267249,
        0.088353015,
        0.071482465,
        0.082615696,
        0.07920296,
        0.102247596,
        0.07751909,
        0.08223154,
        0.066531315,
        0.11614553,
        0.056297984,
        0.04023642,
        0.10132712,
        0.05925357,
        0.11303739,
        0.093441896,
        0.079478055,
        0.07586894,
        0.08036487,
        0.12966245,
        0.06781593,
        0.11898449,
        0.10557157,
        0.08911911,
        0.08017112,
        0.038823698,
        0.08602021,
        0.024614094,
        0.07538309,
        0.05068179,
        0.013231853,
        0.009731604,
        -0.015782386,
        -0.014395839,
        0.006385846,
        0.014953194,
        -0.008856447,
        -0.0064655566,
        0.24337015,
        0.0032601277,
        0.11872303,
        0.182978,
        -0.025034089,
        -0.014234274,
        0.17529432,
        0.17496035,
        -0.0015362684,
        -0.020051725,
        0.01312648,
        0.023127934,
        0.15986247,
        0.02587084,
        -0.004921494,
        0.06467269,
        0.075629786,
        0.0772986,
        0.31235713,
        0.18705319,
        0.07944783,
        0.0498582,
        0.17321892,
        0.013752037,
        -0.0016102049,
        0.03927994,
        -0.020475456
      ],
      "base_confidence": 0.5
    },
    {
      "node_id": "deep_standalone_13",
      "tier": "Deep",
      "weights": [
        -0.036102526,
        -0.012814714,
        0.110707335,
        -0.092681415,
        -0.053216115,
        -0.1194722,
        -0.06260724,
        0.14339536,
        -0.08195286,
        0.13009696,
        -0.10677691,
        0.18221056,
        -0.099931754,
        -0.11015161,
        -0.1455398,
        0.060766,
        -0.11436093,
        -0.07906249,
        0.13424875,
        0.062284607,
        -0.1074366,
        -0.09678323,
        0.07432605,
        0.015547786,
        0.15038295,
        0.12741235,
        -0.026354779,
        0.070720814,
        -0.04321318,
        0.08720654,
        -0.05443241,
        0.010428912,
        -0.026964461,
        0.14824714,
        -0.013881634,
        -0.066527516,
        0.06670586,
        0.082840264,
        -0.073443756,
        -0.041194648,
        0.009790716,
        0.098667495,
        -0.020342207,
        -0.04481479,
        0.014675629,
        0.13599499,
        -0.024117503,
        0.13961107,
        0.12205628,
        -0.04159678,
        0.08893337,
        -0.059236452,
        -0.10182662,
        -0.10966958,
        0.13199377,
        -0.12523337,
        -0.016391024,
        0.030582476,
        0.0016971409,
        0.014821003,
        -0.14943562,
        0.09525934,
        -0.08102666,
        -0.06392141,
        0.11795758,
        0.17915627,
        0.023574682,
        0.07528001,
        -0.009683802,
        -0.12104779,
        0.056483917,
        -0.0014018579,
        0.12612292,
        -0.13427286,
        0.12307752,
        0.099558204,
        -0.027647879,
        0.059213664,
        -0.016247524,
        0.09758694,
        0.079062544,
        0.103585556,
        -0.03980513,
        0.15573925,
        0.04765697,
        0.007290086,
        -0.13951339,
        -0.08723995,
        -0.09938588,
        -0.11170295,
        0.04104498,
        -0.17753616,
        -0.16188036,
        -0.06539957,
        -0.061257035,
        -0.0023102057,
        0.14031166,
        -0.054870803,
        -0.027747257,
        0.08260791,
        -0.069582365,
        0.009605795,
        0.040814754,
        -0.05488046,
        0.082689546,
        -0.065421104,
        0.10129668,
        0.032680906,
        -0.0014058639,
        -0.040809732,
        0.025531935,
        -0.09908604,
        0.113958366,
        0.061941925,
        -0.042084903,
        0.06274463,
        0.06744601,
        0.13848846,
        -0.06617861,
        0.08433558,
        -0.10396967,
        -0.005519371,
        0.08580048,
        -0.0314438,
        -0.082735226,
        0.02399619,
        0.022581717,
        -0.08641031
      ],
      "base_confidence": 0.5
    },
    {
      "node_id": "deep_standalone_14",
      "tier": "Deep",
      "weights": [
        0.0053940034,
        -0.049276218,
        -0.1651632,
        -0.03438118,
        -0.006374439,
        0.110363476,
        -0.0068255956,
        0.054859508,
        0.063931145,
        0.05887821,
        0.100825004,
        -0.04261997,
        -0.0696704,
        0.03579622,
        0.03141162,
        -0.04777598,
        0.0033144963,
        -0.0906391,
        -0.009538445,
        0.058691286,
        -0.026673649,
        0.12169877,
        -0.10574042,
        0.025437688,
        -0.081027254,
        -0.15525103,
        0.0152368555,
        0.052857835,
        -0.061541695,
        0.054875474,
        -0.16269033,
        -0.049058147,
        0.1672311,
        0.010459704,
        0.12805934,
        -0.08746633,
        0.049732257,
        0.12403333,
        -0.068827786,
        -0.10217804,
        0.07431332,
        -0.06000864,
        -0.06676127,
        -0.05245323,
        0.091393985,
        -0.038749613,
        0.0808124,
        0.046731137,
        -0.090421654,
        0.17443207,
        0.085398324,
        0.05492379,
        0.1391856,
        0.11441345,
        0.034701005,
        -0.13239825,
        -0.17429881,
        0.07385406,
        0.1968854,
        -0.11049786,
        0.018353695,
        0.06265678,
        -0.008386083,
        0.012918573,
        0.016471252,
        0.087202154,
        -0.028694183,
        -0.13220763,
        0.060342398,
        0.0090969475,
        0.09146505,
        0.00004192948,
        0.16282907,
        -0.11445709,
        -0.0014527574,
        0.05311496,
        0.19479634,
        0.062305007,
        0.18634072,
        -0.05886378,
        0.023670457,
        0.06696842,
        -0.11527813,
        0.0615162,
        0.1322745,
        -0.020451922,
        -0.09339168,
        -0.02332744,
        0.050013438,
        0.07563185,
        0.1193382,
        -0.08543938,
        -0.027007429,
        -0.17721827,
        -0.11668849,
        0.11056079,
        -0.004673654,
        -0.038806025,
        -0.08031623,
        -0.06185185,
        0.12967852,
        -0.014803507,
        0.087445945,
        0.027122803,
        0.17169327,
        0.05108144,
        -0.07126279,
        0.043184966,
        0.04888585,
        -0.026487112,
        -0.044096116,
        -0.051901385,
        -0.026059719,
        0.021183211,
        0.07502291,
        0.03165346,
        -0.14995563,
        0.05856758,
        0.18816894,
        0.04466857,
        0.17428821,
        -0.03203441,
        -0.030380674,
        0.05057356,
        0.121137775,
        0.010904821,
        -0.039382864,
        0.029326394
      ],
      "base_confidence": 0.5
    }
  ]
}